34 64
1 0.030439284 -0.12801786 -0.0678414 0.018891541 0.13281164 -0.050919447 -0.22740628 -0.054551233 0.06111858 -0.19597204 0.08414389 -0.0846194 0.05429755 -0.058090076 -0.13558763 -0.21267965 -0.25997856 0.036347177 0.23447831 -0.12072165 0.10440159 -0.08503024 0.15114787 0.14982218 -0.32740504 -0.22153898 0.08217361 0.03011506 -0.0037549094 0.19563843 0.21775989 -0.09719376 0.047910713 0.22202548 -0.08252779 -0.067713514 0.28797868 0.01298391 0.3723579 0.014027683 -0.18789959 -0.33275658 -0.09367195 -0.22612724 -0.043766905 -0.2563887 -0.058503482 -0.32032472 -0.058046933 0.14206846 0.13727021 -0.07355692 0.1725471 -0.18710515 -0.04448584 -0.007394821 0.25393826 -0.1987442 -0.0077192644 0.14941907 0.009053384 -0.15575935 0.23915082 -0.13284446
34 0.058457512 -0.2249002 -0.020423777 -0.27738407 -0.14572357 0.2482218 -0.17886938 0.24542527 -0.21253662 -0.6069551 0.15057585 -0.29073715 0.1436009 -0.044393208 -0.058789644 -0.1416778 -0.021541761 -0.05158293 0.021003759 -0.16414624 -0.016296154 0.095619865 -0.13890557 -0.14163288 0.08968237 -0.109490536 0.23167576 0.1446431 -0.044897344 0.19554846 0.045321073 0.08516046 -0.15721956 -0.23482479 -0.13504548 -0.10034694 0.039155833 0.032511044 0.19860673 -0.17428663 -0.12643734 -0.15390745 -0.14605512 0.048903156 -0.08485609 -0.14989199 0.001311444 0.013368909 -0.09335955 0.10957127 -0.08666518 0.012754019 0.19950742 -0.15787764 0.16955893 0.28345478 -0.07741248 -0.033979394 -0.16646072 0.1699985 -0.075168006 -0.45825705 0.12858768 -0.24350686
33 0.09958749 -0.24663934 -0.039524212 -0.23303008 -0.17479753 0.28953454 -0.1683947 0.19606328 -0.24783188 -0.63310176 0.11556902 -0.23333186 0.17562672 -0.05748014 -0.038657367 -0.20149225 -0.029478986 -0.08741652 -0.03360862 -0.19760507 -0.013968912 0.06769951 -0.18676583 -0.20299907 0.117579885 -0.10175819 0.20605662 0.1813126 -0.027985662 0.1808528 0.03152274 0.10299473 -0.16298975 -0.29451767 -0.111944325 -0.12059691 0.056920826 0.004775631 0.15379576 -0.13910134 -0.11348736 -0.14244922 -0.12443222 0.06995035 -0.12678608 -0.062909 0.015575277 -0.02899677 -0.08885485 0.09019964 -0.026208336 -0.040825132 0.20886482 -0.16297619 0.13716353 0.2611435 -0.08726344 -0.029196253 -0.16168308 0.14983295 -0.120947205 -0.41873002 0.11442086 -0.2627258
3 0.07605667 -0.23405607 -0.03400147 -0.16745734 0.054177824 0.08351139 -0.22807695 0.13932456 -0.06739135 -0.37137827 0.14287022 -0.23990971 0.17618419 -0.05977766 -0.13340506 -0.2352814 -0.08686417 0.0012675402 0.063716546 -0.056974478 0.03526539 0.074368246 -0.049486842 0.004713262 -0.011248024 -0.13617536 0.21812727 0.14592941 0.050752424 0.18688425 0.19189015 -0.06883899 -0.1135025 0.12791154 -0.18056457 -0.03667075 0.11709987 -0.036426596 0.39256504 -0.094574444 -0.096125565 -0.27697352 -0.0017288737 -0.046119668 -0.101630665 -0.20711692 0.028690003 -0.10817694 -0.11470056 0.14926933 -0.07840888 -0.12908895 0.16985059 -0.12548065 0.082438044 0.16266009 0.038010348 -0.09737598 -0.09846245 0.13692223 0.115509965 -0.26362145 0.28661856 -0.15207192
2 0.117329806 -0.25171852 -0.050368123 -0.07744322 0.19086611 0.025970915 -0.2815038 0.026392572 -0.0068275663 -0.23735087 0.14788333 -0.20253219 0.21423937 -0.07153967 -0.18847689 -0.3211374 -0.1607877 0.065335944 0.10566002 -0.03070349 0.07682636 0.015233775 -0.00091680756 0.09731392 -0.11874545 -0.15625533 0.18751775 0.15575641 0.08025131 0.19083886 0.2808472 -0.1517159 -0.07905971 0.35349646 -0.19753927 -0.024510153 0.19497922 -0.07881804 0.53460044 -0.02936606 -0.09672608 -0.38258535 0.087719664 -0.12776853 -0.12659381 -0.2541785 0.013689633 -0.21384549 -0.14172862 0.18307744 -0.0013586037 -0.21473475 0.163058 -0.13337545 -0.0013921103 0.050400898 0.15368031 -0.1505264 -0.0503826 0.12708113 0.18247518 -0.1459797 0.36052653 -0.09800701
4 0.09793075 -0.2374322 -0.057760857 -0.08708222 0.21161392 -0.010700579 -0.28071153 0.042996705 0.028729532 -0.2079114 0.14347751 -0.21272606 0.20564182 -0.05679934 -0.21832761 -0.32298905 -0.15991366 0.06107538 0.115221374 0.0008899735 0.08030717 0.04193755 0.023166485 0.11789866 -0.1249409 -0.1702688 0.20824827 0.14763518 0.10295877 0.20301607 0.30452645 -0.18149664 -0.06926862 0.4205373 -0.22952943 -0.01724277 0.18888606 -0.076199844 0.5688285 -0.043892078 -0.11340669 -0.38506734 0.09396096 -0.13931608 -0.111510046 -0.2804848 0.032377187 -0.2262996 -0.155925 0.18841901 -0.048403546 -0.21845776 0.15519299 -0.13601847 0.025004728 0.058248024 0.1456246 -0.16520113 -0.05471834 0.12488361 0.21646151 -0.1424174 0.3929186 -0.08712938
32 -0.077526264 0.007971886 0.1300571 -0.19319755 -0.106428936 0.11240137 -0.13944045 0.26271513 -0.15741481 -0.39007354 0.25091326 -0.27296558 -0.0901617 -0.09663998 -0.10921745 0.07833346 -0.15090373 -0.13805951 0.18439578 -0.2044906 -0.06413078 0.06298237 0.13358024 0.04987948 -0.15827553 -0.26116136 0.30635816 0.06879184 -0.15535969 0.1554723 0.121939994 0.13704292 -0.14488438 -0.15298565 -0.17767203 -0.028847756 -0.011692328 0.16302882 0.20914191 -0.23167467 -0.1975561 -0.044113003 -0.37717512 -0.060555626 0.05739394 -0.31458333 -0.09863938 0.05852122 0.019634504 0.0060869935 -0.12706093 0.21766543 0.25314087 -0.10396234 0.103902005 0.16794948 0.023698835 0.0030962834 -0.1610352 0.11676297 -0.10617889 -0.41658583 -0.011097544 -0.17724295
14 0.061703417 -0.21644366 -0.051911995 -0.07876918 0.07875662 0.04471274 -0.2418873 0.055387445 -0.041940954 -0.31528136 0.13603994 -0.17869143 0.14008108 -0.07730139 -0.13097882 -0.24900141 -0.14569141 -0.009600323 0.09980182 -0.09269897 0.05500647 0.014075922 0.033548806 0.053136405 -0.1186632 -0.16007425 0.16744737 0.094264574 0.017606199 0.18540737 0.20253815 -0.049093086 -0.053140115 0.13711281 -0.13626552 -0.062934354 0.19250837 -0.033406228 0.37953207 -0.028660838 -0.13243753 -0.28693637 -0.030245062 -0.09151708 -0.088215135 -0.19929998 -0.0045649055 -0.20519117 -0.080603346 0.1497887 0.024526795 -0.116378285 0.18910088 -0.14901422 0.0369064 0.080387995 0.10018267 -0.13143004 -0.056791596 0.13489461 0.043496538 -0.21523263 0.27050796 -0.15609801
24 -0.027703242 -0.10289686 0.11202757 -0.29417604 -0.169979 0.23462498 -0.1589096 0.34626943 -0.2600374 -0.56488156 0.26084596 -0.3412293 -0.0004965904 -0.101713434 -0.10539899 0.001721866 -0.025371233 -0.1427002 0.06643018 -0.17667505 -0.07513495 0.15044796 -0.02180482 -0.07061439 0.043836575 -0.18268068 0.33358908 0.13138953 -0.14355746 0.14696167 0.08901282 0.16836238 -0.22572535 -0.2584901 -0.2153578 -0.049727496 -0.10671292 0.12165803 0.21248564 -0.27468172 -0.14777373 -0.038321737 -0.30271798 0.06170059 0.022635587 -0.25534135 -0.05361093 0.17824224 -0.024365233 0.040529422 -0.17983772 0.1655028 0.2599824 -0.10400084 0.14660344 0.26535073 -0.09274891 0.052922618 -0.23034692 0.13401851 -0.102794886 -0.5008326 0.007719874 -0.21880636
9 0.053688504 -0.1978334 -0.03401516 -0.18344977 -0.08104596 0.17662357 -0.18792449 0.16025148 -0.1600956 -0.48574808 0.13606222 -0.22089262 0.11084502 -0.057076544 -0.06399497 -0.16393773 -0.08408942 -0.0382967 0.06305413 -0.1620863 0.009249187 0.056978628 -0.061190512 -0.06831105 -0.011768435 -0.12908538 0.18514216 0.11184482 -0.032576036 0.18033686 0.07494292 0.053787973 -0.103481814 -0.13634096 -0.12424188 -0.09254771 0.09908432 0.025706766 0.22393034 -0.10595266 -0.14464892 -0.1837101 -0.12648669 -0.020804882 -0.07329216 -0.1612287 -0.00809226 -0.05935342 -0.067829065 0.10242478 -0.005628432 -0.014403471 0.19498213 -0.15483886 0.106557176 0.19264358 0.012037798 -0.06409825 -0.13174884 0.1492065 -0.06586728 -0.36126283 0.14937364 -0.20605011
8 0.096168794 -0.26992115 -0.07358425 -0.1196259 0.17220305 0.011806814 -0.27743694 0.048006188 0.005451306 -0.2847196 0.14273882 -0.21394221 0.20166714 -0.05065699 -0.1926854 -0.32285935 -0.13448495 0.039562996 0.09701185 -0.01726499 0.08215015 0.040120184 0.0027212016 0.08173763 -0.07252691 -0.14625174 0.19051318 0.120888636 0.08177409 0.1926956 0.26025105 -0.15195094 -0.07579261 0.3102979 -0.1816379 -0.036471255 0.2083929 -0.07140346 0.5161321 -0.048203286 -0.12004412 -0.37356973 0.071013235 -0.10571006 -0.12551834 -0.23977458 0.023429858 -0.21506636 -0.13363977 0.19902544 -0.027569817 -0.18741767 0.17522024 -0.14637403 0.05177856 0.10105725 0.10908435 -0.15546241 -0.074298404 0.13470569 0.18082021 -0.17454329 0.37721184 -0.13290854
28 -0.041738126 -0.04000389 0.12498089 -0.24023655 -0.069926806 0.11574208 -0.16818428 0.28861678 -0.16133645 -0.40518752 0.2577126 -0.31191292 -0.023079354 -0.078432135 -0.15004148 0.030952835 -0.08811966 -0.11420202 0.12064352 -0.13438813 -0.054539066 0.12645435 0.07340913 0.03825239 -0.06178714 -0.23069003 0.3145332 0.09218155 -0.11337168 0.15680434 0.15103105 0.09657747 -0.17917188 -0.07379018 -0.21715184 -0.004005628 -0.041046962 0.12296835 0.2985066 -0.26075438 -0.1603263 -0.074060544 -0.2878288 -0.031300638 0.032003008 -0.32317135 -0.06992639 0.11403893 -0.03926717 0.044589486 -0.17706083 0.17284472 0.2208364 -0.09840001 0.13543403 0.19749837 -0.0054975506 0.02816088 -0.17640851 0.10325755 -0.034537103 -0.40979478 0.03573083 -0.16371232
6 0.0008383509 -0.03958986 -0.12623404 0.24178007 0.11287773 -0.0938053 -0.21477623 -0.25214309 0.12172944 -0.19615676 -0.00075510214 0.11428685 -0.018939367 -0.06282535 -0.070616074 -0.23833764 -0.52190334 -0.0053335456 0.39570156 -0.3541097 0.14781597 -0.31394517 0.30034286 0.17067347 -0.6894845 -0.42860895 -0.002622638 -0.016524218 -0.062321797 0.29595205 0.1926635 -0.04603964 0.19185103 0.08828512 0.05893137 -0.16429642 0.54405856 0.120231986 0.26894116 0.12985931 -0.33827698 -0.37505683 -0.32432297 -0.41527674 -0.034363333 -0.24118629 -0.14897265 -0.65787214 0.028751131 0.11760061 0.39907855 -0.033715297 0.23118265 -0.33768255 -0.14400156 -0.124724284 0.48256454 -0.34247378 0.11429869 0.20404635 -0.24943069 -0.19353744 0.15963715 -0.24786374
7 -0.041931838 -0.022001462 -0.12802233 0.18894319 0.01441335 -0.06403706 -0.18992181 -0.18347277 0.05198765 -0.28971192 0.026614096 0.104512505 -0.059666224 -0.075930476 -0.022726122 -0.17205457 -0.47850737 -0.049711574 0.3798184 -0.39094654 0.13500576 -0.29057428 0.294327 0.118022665 -0.6281348 -0.41626856 0.014615001 -0.041689076 -0.10505751 0.27006388 0.13542244 0.028754134 0.17696968 -0.08612965 0.10108642 -0.16776115 0.49472108 0.14008933 0.17198311 0.10781787 -0.33711132 -0.30821443 -0.38962486 -0.36405203 -0.028209219 -0.19981663 -0.17346027 -0.5954352 0.07981565 0.084926695 0.3705395 0.017251903 0.27020392 -0.3165992 -0.114679076 -0.080420904 0.41879147 -0.31036198 0.10162283 0.2013705 -0.30957225 -0.25479195 0.10332379 -0.28758836
31 0.078403495 -0.23620294 -0.013372636 -0.20610264 -0.062540375 0.17700677 -0.20715876 0.18957761 -0.171814 -0.4822889 0.15494993 -0.2551148 0.15800011 -0.059154805 -0.08070144 -0.1854764 -0.039979044 -0.031233978 0.017059281 -0.11010303 -0.0012958535 0.08813803 -0.09734555 -0.08460812 0.05573324 -0.11525746 0.21756952 0.13465299 -0.01208933 0.18174879 0.11825498 0.032067783 -0.15340853 -0.06332464 -0.16083246 -0.085193336 0.07668208 -0.005689058 0.28145653 -0.115196586 -0.11671323 -0.18729879 -0.06244006 0.0030338715 -0.094404176 -0.15449104 0.01818753 -0.038282156 -0.09018758 0.116392165 -0.069607705 -0.0558328 0.17782654 -0.14313714 0.12222322 0.19758148 -0.031868126 -0.05840961 -0.13134392 0.13834828 -0.0039627673 -0.35536432 0.174694 -0.18762207
30 0.022747306 -0.1757288 0.062185477 -0.32248282 -0.22407545 0.30382624 -0.17969342 0.3475851 -0.27754417 -0.6646897 0.22746652 -0.35476163 0.08018537 -0.09429718 -0.06763627 -0.03836577 0.007083247 -0.103987105 0.0039140186 -0.18602343 -0.06709946 0.15013137 -0.114969686 -0.14125882 0.10011943 -0.12977798 0.28044996 0.14642526 -0.10844413 0.18436943 0.044716787 0.17916206 -0.2080867 -0.31534085 -0.18554723 -0.09070312 -0.072526336 0.083484076 0.17418878 -0.26337445 -0.12830304 -0.07530088 -0.24906121 0.07420906 -0.03548276 -0.19463526 -0.024692817 0.15025051 -0.067718536 0.07458368 -0.13826005 0.1431865 0.22454695 -0.15427856 0.175069 0.30831528 -0.11020885 0.029385805 -0.22763568 0.16373226 -0.12323912 -0.54394466 0.01827825 -0.24347617
25 -0.10662243 0.05607254 0.20940685 -0.28150252 -0.12573794 0.1278504 -0.14318897 0.36368912 -0.1995654 -0.4022686 0.32836893 -0.3622331 -0.14814956 -0.11166805 -0.1549637 0.17431994 -0.11957819 -0.16287832 0.19019733 -0.17205897 -0.101131886 0.13281581 0.1645306 0.08219077 -0.13760212 -0.26245868 0.3811048 0.087271616 -0.21124716 0.1492072 0.13860466 0.1676659 -0.21575207 -0.1398645 -0.25451505 0.011122801 -0.13846959 0.21917725 0.25196564 -0.33405948 -0.19054663 0.006988509 -0.42145467 -0.02902302 0.11730013 -0.39774033 -0.119397044 0.22133175 0.007495585 -0.018625462 -0.23250785 0.3146538 0.26157972 -0.08234783 0.13236485 0.20977746 -0.018038958 0.07000335 -0.23047212 0.10967098 -0.08553135 -0.48992768 -0.071671374 -0.15295972
29 0.014565212 -0.15004905 0.025491921 -0.2028825 -0.04202415 0.13295074 -0.18358094 0.20294468 -0.13516137 -0.41374683 0.18864661 -0.26601994 0.0746944 -0.08075011 -0.111518376 -0.11300379 -0.07628565 -0.063183635 0.08359803 -0.12322216 -0.014010686 0.075331554 0.0015261725 -0.011125582 -0.03501091 -0.16032968 0.25804228 0.11664643 -0.05379857 0.15941693 0.12252205 0.03039657 -0.13206953 -0.02064846 -0.17681703 -0.054792214 0.023087846 0.050836425 0.28845057 -0.15747774 -0.12828992 -0.15518151 -0.14732534 -0.0066845124 -0.03722627 -0.22876917 -0.027683288 -0.0028423802 -0.07880945 0.09858958 -0.08622594 0.02567304 0.19772345 -0.12974499 0.10849343 0.18394679 0.0014152053 -0.040486783 -0.13636036 0.13243172 -0.0030548617 -0.34626964 0.14280933 -0.17180546
5 0.0043624146 -0.10465121 -0.14540498 0.18302818 0.10248959 -0.07942528 -0.22863023 -0.21847211 0.10199885 -0.23414603 0.0068330057 0.07415623 0.0070979963 -0.07686954 -0.0712745 -0.27253127 -0.44940782 -0.014373561 0.3422744 -0.29207546 0.15668486 -0.25582096 0.26693267 0.15669456 -0.5713062 -0.3510332 0.0036877487 -0.021030132 -0.039550133 0.252469 0.19720185 -0.062367726 0.16412298 0.08339356 0.06046116 -0.15208563 0.50380987 0.0701754 0.2792494 0.12614277 -0.29840186 -0.3859671 -0.23877299 -0.35032183 -0.049628135 -0.21464546 -0.12441786 -0.6054835 0.027190857 0.13358906 0.36010942 -0.069398165 0.2439037 -0.29676026 -0.12883532 -0.09233629 0.40862024 -0.3248431 0.093868665 0.1970494 -0.1855862 -0.16595791 0.21692333 -0.23992871
11 0.0028422915 -0.10942774 -0.17172213 0.22233671 0.07548091 -0.074097686 -0.21980637 -0.22980231 0.071215495 -0.27010566 0.0001239175 0.12491005 0.023002375 -0.078925915 -0.029823838 -0.2969979 -0.46021402 -0.030673498 0.32732102 -0.34210214 0.17155766 -0.29518706 0.25158814 0.10746494 -0.5716051 -0.3665912 -0.011101683 -0.018264784 -0.031124743 0.2703921 0.1816152 -0.033246174 0.18635544 0.006857657 0.097978 -0.17730743 0.55006546 0.060032662 0.23364608 0.17037335 -0.30691275 -0.3860688 -0.27003217 -0.36221087 -0.069312595 -0.15832224 -0.1357081 -0.66329557 0.04884174 0.12314055 0.39916393 -0.111980654 0.26901722 -0.30305108 -0.12613072 -0.09969517 0.42182714 -0.326328 0.10408941 0.18986863 -0.23193166 -0.16621262 0.21300976 -0.28237566
26 -0.12939563 0.057603117 0.24243817 -0.29920867 -0.12809218 0.1381187 -0.14180656 0.41804907 -0.22027938 -0.44850963 0.35298628 -0.39871758 -0.14877407 -0.09620919 -0.15675624 0.19554758 -0.09835882 -0.18917324 0.19542605 -0.17572778 -0.114349104 0.17346373 0.1489799 0.06629537 -0.113320366 -0.29041797 0.4205286 0.097687416 -0.20883693 0.15658928 0.13768227 0.18010743 -0.238672 -0.16311242 -0.27527487 0.015389317 -0.15806077 0.23281312 0.27046138 -0.3738593 -0.19375025 0.022315243 -0.47304252 -0.023780808 0.12762941 -0.41565195 -0.11606701 0.2608621 0.0032379664 -0.028389547 -0.28322095 0.35537696 0.2687459 -0.06470129 0.16422778 0.2516591 -0.041104116 0.0900789 -0.25810444 0.0973489 -0.08087394 -0.53413683 -0.0695177 -0.16434906
20 0.068730906 -0.20128627 -0.04211538 -0.079038076 0.08570111 0.0500876 -0.21931846 0.04367452 -0.03186411 -0.322248 0.11755797 -0.16681296 0.13534169 -0.05461582 -0.13197552 -0.23461138 -0.16188852 0.0119561665 0.11798782 -0.10272444 0.061469313 -0.00597497 0.015866665 0.04937309 -0.1273806 -0.16419469 0.15160955 0.107822865 0.007998514 0.18608844 0.18895598 -0.065442294 -0.05220276 0.15025534 -0.13554677 -0.06836732 0.19139874 -0.021903003 0.38376454 -0.05410294 -0.13310727 -0.29745126 -0.0488139 -0.10431309 -0.07465534 -0.2082124 -0.012035621 -0.19658357 -0.10050203 0.1477797 0.029294237 -0.097579144 0.16256174 -0.16159841 0.02800247 0.082361035 0.11900353 -0.13146576 -0.062570676 0.13149612 0.04714918 -0.23162033 0.23802504 -0.1573945
13 0.07610715 -0.21057813 -0.047834188 -0.082818426 0.16249557 -0.015538232 -0.2745279 0.033490244 0.01825757 -0.2503454 0.14174713 -0.19467536 0.1437025 -0.065699644 -0.19692048 -0.28219694 -0.16749975 0.027545635 0.15117095 -0.041033775 0.08056914 0.019838035 0.05925356 0.12862815 -0.15850514 -0.17500581 0.17622776 0.11084203 0.047643505 0.19488373 0.2805816 -0.1270868 -0.051797915 0.3008928 -0.17421153 -0.03945024 0.2054813 -0.051075276 0.50233763 -0.05726754 -0.13572074 -0.36594695 0.008774447 -0.13161798 -0.08634072 -0.276239 -0.0076577123 -0.2299538 -0.10728753 0.16978686 -0.0042838734 -0.14503744 0.190105 -0.13839905 0.0089477915 0.05989587 0.15421928 -0.14924502 -0.067747414 0.13604341 0.14765157 -0.16806461 0.33794633 -0.11837575
18 0.06752591 -0.18992953 -0.06396838 -0.01219605 0.17494892 -0.02878077 -0.25714153 -0.028042234 0.018496243 -0.2290159 0.12379669 -0.12814043 0.13463767 -0.059075195 -0.17988406 -0.28567383 -0.23339231 0.018564176 0.17260514 -0.09241465 0.10090366 -0.043275047 0.091955274 0.10853356 -0.23389123 -0.22272334 0.15646301 0.0908558 0.035058826 0.2115961 0.2680092 -0.12377939 -0.023723066 0.27692038 -0.1313207 -0.052689884 0.2741885 -0.0349379 0.47354397 -0.012512098 -0.17227408 -0.36345693 -0.042653088 -0.18968962 -0.0967857 -0.25592536 -0.035574764 -0.30581185 -0.085174754 0.15367258 0.07501755 -0.15677236 0.19558018 -0.16368227 -0.022777624 0.023000635 0.21186736 -0.17624992 -0.03408568 0.12829416 0.08822873 -0.15396444 0.3104303 -0.1526985
22 0.0715519 -0.16147555 -0.03707505 -0.019706527 0.16457468 -0.022917071 -0.23680274 -0.018886186 0.032828428 -0.2222851 0.11069326 -0.12736714 0.12792793 -0.045633603 -0.17449233 -0.25372702 -0.22057638 0.038791496 0.16877942 -0.08025949 0.07838687 -0.03663156 0.079867005 0.11130014 -0.23219398 -0.21884242 0.1413503 0.084371366 0.030483412 0.21429029 0.25645566 -0.11078732 -0.016688148 0.27055544 -0.13973042 -0.050581172 0.25696015 -0.009605588 0.45269224 -0.023003729 -0.16440625 -0.3484812 -0.04354302 -0.17684606 -0.07266232 -0.25910926 -0.03426297 -0.27575055 -0.08671828 0.14574338 0.060961183 -0.11519169 0.15695111 -0.17061205 -0.00038946906 0.024867428 0.20502509 -0.17681062 -0.02844232 0.11940706 0.07564253 -0.17721727 0.27810183 -0.13536444
17 -0.0073653455 -0.06537519 -0.20850958 0.29930532 0.016579451 -0.04308661 -0.19587383 -0.3123559 0.077555954 -0.32438692 -0.06449064 0.22010611 -0.003970025 -0.07576673 0.01767806 -0.28382924 -0.5677763 -0.044749353 0.3785937 -0.4799669 0.17246023 -0.40047565 0.29141396 0.06926168 -0.71109366 -0.43935925 -0.06548934 -0.03429551 -0.091607615 0.3170502 0.1150178 0.016306804 0.24233337 -0.15676676 0.19037372 -0.23995033 0.6410338 0.12212281 0.12283638 0.22295092 -0.3729264 -0.38621062 -0.39417422 -0.4193798 -0.082450196 -0.117589615 -0.17819767 -0.78873634 0.096582286 0.11432773 0.5353137 -0.07187423 0.277629 -0.39010796 -0.16502373 -0.13000156 0.50149757 -0.39433524 0.1684727 0.22827144 -0.39234337 -0.21755724 0.13197902 -0.33828914
23 0.049458418 -0.19730237 0.03993272 -0.25932497 -0.16804019 0.26422372 -0.18137448 0.27760598 -0.252598 -0.5778927 0.18877539 -0.2997132 0.10192161 -0.08533921 -0.043455053 -0.07769095 -0.01923807 -0.07778874 0.013317587 -0.17472948 -0.041907143 0.10296234 -0.09180628 -0.12431389 0.053670153 -0.11649625 0.23510633 0.14341472 -0.08796326 0.17975633 0.046704203 0.14947778 -0.18191198 -0.26112285 -0.17043836 -0.0946667 -0.003935257 0.06548648 0.18886389 -0.1871728 -0.12938775 -0.106890716 -0.18243377 0.033469446 -0.056778193 -0.16046861 -0.022732176 0.06724383 -0.06106381 0.08092211 -0.08741281 0.06189554 0.19803958 -0.143007 0.14482509 0.2631546 -0.06409325 0.00243084 -0.18436174 0.14515552 -0.1015767 -0.4612626 0.06251198 -0.21606709
10 0.07953682 -0.24451663 -0.016292218 -0.24411815 -0.031354718 0.17571369 -0.21911606 0.21158738 -0.16660905 -0.4735303 0.18112738 -0.30199122 0.17247842 -0.0614381 -0.13066813 -0.21006492 -0.019208409 -0.016374927 0.005738889 -0.065230824 -0.0069831465 0.11463539 -0.11094217 -0.06365786 0.07957798 -0.10771431 0.24456002 0.14476505 0.0012080473 0.1869364 0.14091896 0.0061220983 -0.17031293 0.003327204 -0.20746315 -0.056035418 0.030103514 -0.014324786 0.34777126 -0.15406765 -0.09419571 -0.21336982 -0.034144264 0.02654877 -0.0834146 -0.1979969 0.033165157 -0.0047351154 -0.131833 0.14298794 -0.10975124 -0.06591086 0.18188615 -0.13884678 0.13041508 0.2237555 -0.049257476 -0.043448325 -0.15781964 0.14852045 0.042537782 -0.35469398 0.22006415 -0.16660514
15 0.035714604 -0.1865925 -0.0076723164 -0.22483444 -0.20904368 0.2653743 -0.15883607 0.22664173 -0.25308627 -0.6089297 0.1426282 -0.24286734 0.09018569 -0.0830807 -0.008608093 -0.09833434 -0.047012296 -0.10931671 0.019022148 -0.23575799 -0.040844634 0.05695816 -0.07824197 -0.15161495 0.036947586 -0.13902785 0.2116552 0.11362882 -0.09842246 0.17604095 0.0076737115 0.16539356 -0.14144826 -0.33751628 -0.11001159 -0.12619996 0.039564963 0.07473679 0.111953825 -0.13992715 -0.15031101 -0.0865442 -0.21660805 0.034486424 -0.06644173 -0.10392049 -0.03088177 0.0053854147 -0.031193903 0.067324914 -0.027148739 0.060944673 0.21555255 -0.16973841 0.13357623 0.24372111 -0.054034248 -0.023059826 -0.14822116 0.1579258 -0.16410775 -0.46219742 0.044500764 -0.250453
19 0.03985376 -0.21689549 0.0014072625 -0.26869088 -0.174368 0.2538291 -0.18474828 0.25967103 -0.24943368 -0.6234155 0.17515047 -0.29283214 0.10961042 -0.08161125 -0.033043094 -0.104371525 -0.025181977 -0.08362031 0.031713672 -0.19045481 -0.040762324 0.09790271 -0.09056431 -0.12550357 0.05884873 -0.116159484 0.23095433 0.11658488 -0.08302171 0.17310296 0.04633081 0.1383223 -0.15770806 -0.27122208 -0.13895816 -0.11197861 0.018219775 0.05812174 0.16839416 -0.160643 -0.1381443 -0.12478197 -0.1703707 0.050277274 -0.060132567 -0.14748037 -0.019377112 0.037416987 -0.06212176 0.09940808 -0.055868793 0.051021203 0.21581918 -0.16011837 0.15206367 0.27425176 -0.0731762 -0.014800687 -0.18108042 0.1706197 -0.10955227 -0.47119248 0.08435997 -0.23572491
16 0.06316834 -0.23327158 0.006147337 -0.28389564 -0.24804181 0.32730278 -0.16937324 0.28260085 -0.30265835 -0.6949268 0.15246004 -0.28738326 0.13031082 -0.07666487 0.0073532164 -0.102139354 0.008460508 -0.10369002 -0.03753208 -0.21499807 -0.055381898 0.101107076 -0.15421888 -0.20940046 0.13790704 -0.096072055 0.22820874 0.14026536 -0.083754964 0.17471781 -0.0046078796 0.18585466 -0.18874164 -0.40506488 -0.114520974 -0.1340879 0.0061508603 0.048033774 0.098149866 -0.1674977 -0.12175397 -0.08830814 -0.1883523 0.086190805 -0.076863095 -0.09763229 -0.0056413286 0.060327187 -0.055799577 0.077637345 -0.05692163 0.05933245 0.2181555 -0.16538459 0.17388026 0.30295557 -0.11708817 0.0064902967 -0.18087658 0.16323686 -0.16768907 -0.5161716 0.04131062 -0.27672803
21 0.07328021 -0.24117136 -0.014770827 -0.23687771 -0.17008175 0.27877438 -0.17970423 0.2232338 -0.25047523 -0.62085605 0.12706545 -0.2533912 0.1641541 -0.060871143 -0.02556689 -0.17053813 -0.02128423 -0.06881196 -0.010965745 -0.1955784 -0.023721628 0.08172375 -0.1556329 -0.16781953 0.09776361 -0.10754119 0.20744264 0.15632361 -0.046006676 0.18920633 0.034784183 0.12752672 -0.16117679 -0.2860599 -0.11551421 -0.12299827 0.049185336 0.022860384 0.15589543 -0.12924625 -0.11568917 -0.13567564 -0.12763388 0.050470997 -0.09923988 -0.09698617 0.012579211 -0.0037653977 -0.06550191 0.096262835 -0.033092905 -0.010746155 0.20339559 -0.16775359 0.13244419 0.26073927 -0.060080763 -0.032449096 -0.14184736 0.15090424 -0.11074845 -0.43905708 0.09348026 -0.2521652
27 0.06013474 -0.24758929 -0.013856675 -0.28938818 -0.1858306 0.29173243 -0.19235931 0.27627113 -0.26457408 -0.6620956 0.17977281 -0.31765074 0.14301251 -0.07909195 -0.04768318 -0.14251088 0.024366345 -0.07429596 -0.026254674 -0.16768906 -0.035829928 0.12629516 -0.14451253 -0.16128404 0.14426717 -0.1099367 0.23210056 0.13270919 -0.07185089 0.17127308 0.0363284 0.12820604 -0.17393592 -0.2949276 -0.14535534 -0.10319592 -0.016341187 0.025281342 0.18877435 -0.19005893 -0.11076264 -0.112627275 -0.15135333 0.08694103 -0.07662193 -0.14098379 -0.0058315145 0.07153269 -0.07548415 0.112673685 -0.08441594 0.038614776 0.21009547 -0.15647046 0.16356686 0.2993126 -0.100990355 0.009529291 -0.19032507 0.15456855 -0.1035877 -0.48459902 0.087194376 -0.25218683
12 0.036137696 -0.1540219 -0.07677766 0.03145267 0.14984709 -0.0698158 -0.24751711 -0.07612276 0.06411404 -0.19792826 0.08498395 -0.0626538 0.08145526 -0.0704428 -0.13088888 -0.25577492 -0.26539087 0.004212176 0.22381859 -0.13200717 0.1084507 -0.08742797 0.14688756 0.14923668 -0.31228772 -0.24175133 0.09850318 0.048116725 0.019487487 0.20029269 0.24020489 -0.106395945 0.04773732 0.23243311 -0.069485255 -0.06826455 0.31183365 -0.006780774 0.39070496 0.029888587 -0.18380453 -0.35712942 -0.08271266 -0.22070639 -0.06455722 -0.24227153 -0.05372532 -0.36794183 -0.043899044 0.14855333 0.12744056 -0.12317178 0.20363459 -0.1848398 -0.0452683 -0.009546542 0.24863732 -0.20620541 0.0053631333 0.14230569 0.029831063 -0.12949987 0.2858567 -0.15882076
